> rpart.analysis(female.rpart)
n= 3184 

node), split, n, loss, yval, (yprob)
      * denotes terminal node

 1) root 3184 1498 no (0.5295226 0.4704774)  
   2) attr_o< 6.967349 1629  409 no (0.7489257 0.2510743) *
   3) attr_o>=6.967349 1555  466 yes (0.2996785 0.7003215)  
     6) shar_o< 4.947746 289  121 no (0.5813149 0.4186851)  
      12) fun_o< 6.953038 165   44 no (0.7333333 0.2666667) *
      13) fun_o>=6.953038 124   47 yes (0.3790323 0.6209677) *
     7) shar_o>=4.947746 1266  298 yes (0.2353870 0.7646130) *
> confusion.analysis(female.confusion)
           Pred:yes Pred:no
Actual:yes      374     114
Actual:no       100     412

Accuracy:                   0.786 
Sensitivity/Recall:         0.766393442622951 
Specificity:                0.8046875 
Fall-out:                   0.1953125 
Miss rate:                  0.233606557377049 
Precision:                  0.789029535864979 
Negative predictive value:  0.783269961977186 
False discovery rate:       0.210970464135021 
F-measure:                  0.777546777546778 
